//Numpy array shape [64]
//Min -0.509765625000
//Max 0.578125000000
//Number of zeros 2

#ifndef B2_H_
#define B2_H_

#ifdef __HLS4ML_LOAD_TXT_WEIGHTS__
bias2_t b2[64];
#else
bias2_t b2[64] = {-0.234375000, 0.101562500, -0.042968750, -0.136718750, -0.035156250, 0.000000000, 0.013671875, -0.148437500, -0.029296875, -0.017578125, 0.087890625, -0.269531250, 0.089843750, -0.148437500, 0.068359375, 0.126953125, 0.224609375, 0.281250000, -0.044921875, -0.037109375, -0.091796875, 0.060546875, -0.146484375, -0.167968750, -0.146484375, 0.109375000, 0.339843750, -0.050781250, 0.578125000, -0.039062500, -0.509765625, -0.142578125, 0.199218750, -0.226562500, 0.253906250, -0.044921875, 0.011718750, 0.138671875, -0.031250000, -0.250000000, -0.009765625, 0.050781250, -0.189453125, -0.068359375, -0.126953125, 0.000000000, 0.056640625, -0.017578125, -0.085937500, 0.031250000, -0.033203125, 0.160156250, 0.017578125, -0.304687500, 0.003906250, 0.189453125, -0.064453125, 0.173828125, -0.011718750, 0.015625000, -0.046875000, 0.126953125, 0.072265625, -0.304687500};

#endif

#endif
