//Numpy array shape [64]
//Min -0.466796875000
//Max 0.398437500000
//Number of zeros 0

#ifndef B2_H_
#define B2_H_

#ifdef __HLS4ML_LOAD_TXT_WEIGHTS__
bias2_t b2[64];
#else
bias2_t b2[64] = {0.376953125, 0.007812500, 0.062500000, 0.021484375, 0.037109375, 0.357421875, -0.148437500, -0.152343750, -0.064453125, -0.054687500, 0.027343750, 0.044921875, -0.076171875, -0.007812500, -0.044921875, -0.251953125, -0.152343750, -0.083984375, -0.089843750, 0.304687500, -0.068359375, 0.011718750, -0.224609375, -0.416015625, 0.322265625, -0.029296875, -0.158203125, -0.218750000, 0.191406250, -0.050781250, -0.162109375, 0.238281250, -0.193359375, 0.019531250, 0.087890625, 0.181640625, -0.037109375, -0.107421875, -0.001953125, 0.142578125, 0.041015625, 0.156250000, 0.021484375, 0.019531250, -0.068359375, 0.029296875, -0.015625000, 0.132812500, 0.031250000, 0.199218750, 0.064453125, -0.214843750, -0.093750000, 0.044921875, 0.009765625, -0.466796875, 0.046875000, 0.140625000, 0.082031250, -0.339843750, -0.060546875, 0.398437500, 0.076171875, -0.123046875};

#endif

#endif
