//Numpy array shape [64]
//Min -0.064453125000
//Max 0.433593750000
//Number of zeros 2

#ifndef B5_H_
#define B5_H_

#ifdef __HLS4ML_LOAD_TXT_WEIGHTS__
bias5_t b5[64];
#else
bias5_t b5[64] = {0.085937500, -0.037109375, 0.330078125, 0.044921875, -0.052734375, 0.029296875, 0.058593750, 0.433593750, -0.021484375, 0.050781250, -0.058593750, 0.007812500, 0.054687500, 0.023437500, -0.044921875, -0.013671875, -0.013671875, 0.072265625, 0.013671875, 0.003906250, 0.029296875, 0.382812500, 0.058593750, -0.035156250, 0.015625000, -0.005859375, 0.005859375, 0.095703125, 0.095703125, 0.066406250, -0.001953125, 0.013671875, -0.029296875, 0.117187500, 0.306640625, 0.041015625, 0.068359375, 0.000000000, -0.009765625, -0.015625000, -0.001953125, -0.021484375, 0.033203125, -0.027343750, -0.021484375, -0.023437500, 0.376953125, 0.394531250, -0.025390625, -0.064453125, 0.380859375, -0.017578125, 0.005859375, 0.343750000, -0.023437500, 0.015625000, -0.003906250, -0.025390625, -0.029296875, 0.050781250, 0.000000000, 0.029296875, 0.044921875, 0.062500000};

#endif

#endif
