//Numpy array shape [64]
//Min -0.160156250000
//Max 0.476562500000
//Number of zeros 1

#ifndef B5_H_
#define B5_H_

namespace hls4ml_topo_HHbbWW_1mu_v5 {

bias5_t b5[64] = {-0.087890625, 0.052734375, 0.367187500, -0.041015625, -0.007812500, -0.076171875, -0.048828125, -0.019531250, 0.029296875, 0.007812500, -0.021484375, -0.082031250, 0.015625000, -0.001953125, 0.076171875, -0.046875000, 0.074218750, 0.009765625, 0.013671875, 0.376953125, 0.000000000, 0.005859375, -0.021484375, -0.082031250, -0.041015625, 0.380859375, 0.005859375, 0.048828125, -0.017578125, 0.095703125, -0.013671875, -0.072265625, -0.019531250, -0.001953125, 0.091796875, 0.267578125, 0.105468750, -0.074218750, -0.003906250, -0.009765625, -0.005859375, 0.052734375, 0.314453125, -0.160156250, 0.476562500, 0.076171875, -0.003906250, -0.003906250, 0.091796875, 0.033203125, 0.013671875, 0.082031250, 0.044921875, -0.013671875, 0.019531250, 0.013671875, -0.009765625, 0.007812500, 0.064453125, -0.009765625, 0.029296875, -0.117187500, 0.050781250, -0.023437500};

}


#endif
