//Numpy array shape [128]
//Min -0.398437500000
//Max 0.466796875000
//Number of zeros 1

#ifndef B2_H_
#define B2_H_

#ifdef __HLS4ML_LOAD_TXT_WEIGHTS__
bias2_t b2[128];
#else
bias2_t b2[128] = {0.201171875, 0.144531250, 0.119140625, -0.167968750, 0.255859375, -0.275390625, -0.037109375, 0.041015625, 0.175781250, 0.115234375, 0.037109375, 0.175781250, -0.007812500, -0.025390625, -0.132812500, 0.001953125, 0.103515625, 0.285156250, 0.041015625, -0.021484375, 0.029296875, 0.058593750, 0.003906250, -0.001953125, -0.025390625, 0.060546875, -0.042968750, 0.042968750, 0.044921875, 0.033203125, 0.150390625, -0.171875000, -0.001953125, 0.181640625, -0.093750000, -0.109375000, -0.001953125, 0.015625000, 0.265625000, 0.076171875, -0.255859375, -0.183593750, 0.003906250, 0.093750000, -0.005859375, 0.029296875, -0.005859375, -0.203125000, -0.007812500, 0.027343750, -0.240234375, 0.031250000, -0.005859375, 0.019531250, -0.044921875, 0.029296875, 0.023437500, 0.001953125, -0.072265625, -0.039062500, 0.029296875, 0.082031250, 0.103515625, -0.029296875, -0.126953125, 0.019531250, -0.005859375, 0.035156250, 0.466796875, -0.003906250, -0.222656250, 0.132812500, -0.123046875, -0.013671875, 0.349609375, -0.156250000, 0.054687500, 0.169921875, -0.130859375, 0.041015625, -0.123046875, 0.017578125, -0.035156250, 0.033203125, 0.031250000, 0.066406250, 0.082031250, 0.142578125, 0.064453125, -0.240234375, 0.001953125, 0.027343750, -0.398437500, 0.013671875, 0.035156250, 0.191406250, 0.044921875, -0.062500000, -0.132812500, -0.082031250, -0.058593750, 0.195312500, -0.142578125, 0.107421875, 0.072265625, -0.167968750, 0.046875000, -0.029296875, -0.093750000, -0.189453125, 0.037109375, -0.044921875, 0.048828125, 0.048828125, -0.085937500, 0.072265625, -0.130859375, 0.011718750, 0.253906250, 0.130859375, 0.039062500, 0.000000000, 0.070312500, 0.027343750, 0.037109375, 0.041015625, 0.154296875, -0.279296875};

#endif

#endif
